{
  "InputWeights": [
    [
      1.4724419317083213,
      0.36107159764762004,
      0.9348236067746268,
      1.2113349267944316,
      1.026003664507645,
      2.1129499480200176,
      1.8022583585417127,
      2.2377723348193883,
      1.1261662017514467,
      0.21261518045267522,
      1.8079925452116354,
      -0.7086210170355172,
      0.008987902036874728,
      0.2477566603323274,
      1.2461035084924525,
      -0.0613802928468521,
      0.22448244213811538,
      0.5275042991951193,
      1.8409687701190443,
      0.9477287762671681,
      1.5675560503580033,
      2.1846954539017354,
      1.6261441137750872,
      -0.539568513964015,
      1.0271063900141395,
      1.8261090662001,
      1.894781234149217,
      1.975788491469222,
      -0.8435415486487103,
      -0.262145183649224,
      2.628394737073748,
      1.5734509281645352,
      1.6271855276481064,
      1.9856299643935775,
      2.621009992244374,
      1.3431606868671992
    ],
    [
      -0.28025807149312437,
      -0.47381160819257306,
      0.8275396132783529,
      0.5129517963122162,
      -0.8012769619970985,
      -0.03036548739923858,
      -0.2871059200525742,
      0.4437104623882272,
      -0.23176643485798906,
      0.6494769902754808,
      0.6721003798855071,
      -0.17889063946131767,
      -0.7199105076684229,
      -0.7449613616880998,
      -0.5052643291598521,
      -0.7284026547576364,
      0.19121999896703049,
      -0.511781690098516,
      0.6452878400074122,
      0.2031667467716534,
      0.905169446736134,
      0.6194477077077012,
      0.3202606813954149,
      -0.5478531145981546,
      -0.11530827399327948,
      1.1279795789313616,
      0.44724366090203743,
      0.8878786110594926,
      -0.801421237875845,
      -0.8871837399922348,
      -0.18152647460980398,
      0.8133757473503004,
      0.5474406317073881,
      -0.06746454745170108,
      0.9935746242952194,
      -0.5198611265606503
    ]
  ],
  "OutputWeights": [
    [
      -0.14353647558187022
    ],
    [
      -0.3510124101762556
    ],
    [
      -0.3269539842037431
    ],
    [
      -0.00011042389750326106
    ],
    [
      -0.5358290755512528
    ],
    [
      1.1759478060116135
    ],
    [
      -0.04123395777543732
    ],
    [
      0.33447965887999986
    ],
    [
      1.0429785823853102
    ],
    [
      -0.9911618750327869
    ],
    [
      -0.7624579914745824
    ],
    [
      0.36387283188916375
    ],
    [
      -1.0558915242546314
    ],
    [
      0.0676731829652065
    ],
    [
      0.7311958666793262
    ],
    [
      -0.1289078481937438
    ],
    [
      0.15754716573407032
    ],
    [
      -0.4656370834653686
    ],
    [
      0.16781726470408762
    ],
    [
      0.27704573213809636
    ],
    [
      0.33723812264227243
    ],
    [
      -0.7477520909215578
    ],
    [
      0.8119998812274815
    ],
    [
      -0.23418530241019817
    ],
    [
      -0.10862826804558155
    ],
    [
      -0.6843461253848488
    ],
    [
      0.16608619183578083
    ],
    [
      -0.7349200203037989
    ],
    [
      -0.8407867315302052
    ],
    [
      -0.8051786215599301
    ],
    [
      0.934177381662402
    ],
    [
      0.08835428707212299
    ],
    [
      0.5995645008622533
    ],
    [
      -0.13093736052828586
    ],
    [
      0.534530157888804
    ],
    [
      -0.2808328946081814
    ]
  ],
  "HiddenBias": [
    [
      0.4654463516387782,
      -0.906699109104337,
      0.04067152658289652,
      -0.5929610493032773,
      0.7939553781383917,
      0.4313383353921807,
      0.7443176019236716,
      0.5635065748303546,
      0.17191829850285822,
      -0.5751627713427945,
      -0.45910767172297867,
      -1.008131273960927,
      0.4934085445832868,
      -0.7524420569476263,
      0.22521632390617982,
      0.5137468980389812,
      -1.0195982451835357,
      0.2209309723643621,
      -0.10589912335492781,
      -0.9135493748463399,
      0.1562236909359477,
      -0.4500741134144353,
      0.3808017427933871,
      -0.3784741526632742,
      0.06524809197960975,
      -0.8625014075649178,
      -0.5257978559530668,
      -0.3153765042603655,
      -0.4576667190435625,
      -0.07450255098670489,
      1.057836056561814,
      0.22956269301164262,
      0.4220504780792725,
      0.5743822994325334,
      -0.43835507235968485,
      1.0261870697733333
    ]
  ],
  "OutputBias": [
    [
      -0.5339608467374874
    ]
  ]
}