{
  "InputWeights": [
    [
      1.4724419317083213,
      0.36107159764762004,
      0.9348236067746268,
      1.2113349267944316,
      1.026003664507645,
      2.1129499480200176,
      1.8022583585417127,
      2.2377723348193883,
      1.1261662017514467,
      0.21261518045267522,
      1.8079925452116354,
      -0.7086210170355172,
      0.008987902036874728,
      0.2477566603323274,
      1.2461035084924525,
      -0.0613802928468521,
      0.22448244213811538,
      0.5275042991951193,
      1.8409687701190443,
      0.9477287762671681,
      1.5675560503580033,
      2.1846954539017354,
      1.6261441137750872,
      -0.539568513964015,
      1.0271063900141395,
      1.8261090662001,
      1.894781234149217,
      1.975788491469222,
      -0.8435415486487103,
      -0.262145183649224,
      2.628394737073748,
      1.5734509281645352,
      1.6271855276481064,
      1.9856299643935775,
      2.621009992244374,
      1.3431606868671992
    ],
    [
      -0.2851388961956656,
      -0.46970460618824283,
      0.7855503722480242,
      0.4762845402614635,
      -0.7863276003458403,
      -0.04798232508706998,
      -0.2939084954925316,
      0.4086154392807224,
      -0.23698787576914634,
      0.6079581539251099,
      0.6300649112527617,
      -0.18092941525574044,
      -0.7075749395354745,
      -0.738085046284478,
      -0.4992281570522539,
      -0.7158187066769278,
      0.17394509297285318,
      -0.5055237916493532,
      0.6047373930526854,
      0.18430649096206192,
      0.863685429989469,
      0.5788468615543534,
      0.2882154168741648,
      -0.5413174339283298,
      -0.12562788897776833,
      1.0772606763451669,
      0.4130479779697985,
      0.8430331920160612,
      -0.7927256851298123,
      -0.8756609492030107,
      -0.19668418477559604,
      0.7726945843794751,
      0.5102488083766018,
      -0.08432401539871436,
      0.9471371780369533,
      -0.5168463525437376
    ]
  ],
  "OutputWeights": [
    [
      -0.12329945048871299
    ],
    [
      -0.34171187188368385
    ],
    [
      -0.3124736553055068
    ],
    [
      0.0069789322707661805
    ],
    [
      -0.5110774876112447
    ],
    [
      1.1940698551799551
    ],
    [
      -0.01898476701684032
    ],
    [
      0.3521917868523096
    ],
    [
      1.0606536128861401
    ],
    [
      -0.984079745995908
    ],
    [
      -0.7541418449036832
    ],
    [
      0.37252093925898666
    ],
    [
      -1.0341886195196994
    ],
    [
      0.07707487835591499
    ],
    [
      0.7503586502952008
    ],
    [
      -0.10700774304369
    ],
    [
      0.16396840860188597
    ],
    [
      -0.446509677025876
    ],
    [
      0.17978060446438093
    ],
    [
      0.28396505312122794
    ],
    [
      0.3534496029968245
    ],
    [
      -0.7394185968821693
    ],
    [
      0.8281422950354252
    ],
    [
      -0.2207906174277169
    ],
    [
      -0.09254112985550811
    ],
    [
      -0.6780978647789977
    ],
    [
      0.17399754160009384
    ],
    [
      -0.7239412261514326
    ],
    [
      -0.8292874899600517
    ],
    [
      -0.7905802227853601
    ],
    [
      0.9573818313558059
    ],
    [
      0.10464476229545057
    ],
    [
      0.616322308808868
    ],
    [
      -0.11156096876634333
    ],
    [
      0.5448906378964924
    ],
    [
      -0.25486308776387984
    ]
  ],
  "HiddenBias": [
    [
      0.4856833767319353,
      -0.8973985708117654,
      0.05515185548113271,
      -0.5858716931350081,
      0.8187069660783998,
      0.4494603845605222,
      0.7665667926822689,
      0.5812187028026645,
      0.189593329003688,
      -0.5680806423059156,
      -0.45079152515207954,
      -0.9994831665911036,
      0.515111449318219,
      -0.7430403615569183,
      0.24437910752205416,
      0.5356470031890346,
      -1.0131770023157192,
      0.24005837880385464,
      -0.09393578359463453,
      -0.9066300538632084,
      0.17243517129049962,
      -0.44174061937504666,
      0.39694415660133164,
      -0.3650794676807933,
      0.08133523016968319,
      -0.8562531469590666,
      -0.5178865061887535,
      -0.304397710107999,
      -0.44616747747340885,
      -0.059904152212134416,
      1.0810405062552184,
      0.2458531682349703,
      0.4388082860258874,
      0.593758691194476,
      -0.42799459235199633,
      1.052156876617634
    ]
  ],
  "OutputBias": [
    [
      -0.5043171062027894
    ]
  ]
}